net 
{
    node_size = (76 36);
}

node SICK
{
    label = "SICK";
    position = (0 0);
    states = ("yes"  "no");
}

node DRY
{
    label = "DRY";
    position = (0 0);
    states = ("yes"  "no");
}

node LOSES
{
    label = "LOSES";
    position = (0 0);
    states = ("yes"  "no");
}

decision TREAT
{
    label = "TREAT";
    position = (0 0);
    states = ("treat"  "not");
}

node SICKp
{
    label = "SICKp";
    position = (0 0);
    states = ("yes"  "no");
}

node DRYp
{
    label = "DRYp";
    position = (0 0);
    states = ("yes"  "no");
}

node LOSESp
{
    label = "LOSESp";
    position = (0 0);
    states = ("yes"  "no");
}

utility COST
{
    label = "COST";
    position = (0 0);
}

utility HARV
{
    label = "HARV";
    position = (0 0);
}

potential (SICK |)
{
    data = (0.10000000 0.90000000);
}

potential (DRY |)
{
    data = (0.10000000 0.90000000);
}

potential (LOSES | SICK DRY)
{
    data = (((0.95000000 0.05000000)
        (0.85000000 0.15000000))
        ((0.90000000 0.10000000)
        (0.02000000 0.98000000)));
}

potential (TREAT | LOSES)
{
}

potential (SICKp | SICK TREAT)
{
    data = (((0.20000000 0.80000000)
        (0.01000000 0.99000000))
        ((0.99000000 0.01000000)
        (0.02000000 0.98000000)));
}

potential (DRYp | DRY)
{
    data = ((0.60000000 0.40000000)
        (0.05000000 0.95000000));
}

potential (LOSESp | SICKp DRYp)
{
    data = (((0.95000000 0.05000000)
        (0.85000000 0.15000000))
        ((0.90000000 0.10000000)
        (0.02000000 0.98000000)));
}

potential (COST | TREAT)
{
    data = (-8000.00000000 0.00000000);
}

potential (HARV | SICKp)
{
    data = (3000.00000000 20000.00000000);
}
