net
{
    node_size = (76 36);
    HR_realname_HARV = "HARV";
    HR_realname_COST = "COST";
    HR_realname_LOSESp = "LOSESp";
    HR_realname_DRYp = "DRYp";
    HR_realname_SICKp = "SICKp";
    HR_realname_TREAT = "TREAT";
    HR_realname_LOSES = "LOSES";
    HR_realname_DRY = "DRY";
    HR_realname_SICK = "SICK";
    HR_Desc = "";
    HR_OOBN_CheckConsistency = "1";
    HR_OOBN_FitExpand = "1";
    HR_Zoom_ZoomFactor = "100";
    HR_Groups_GroupColors = "";
    HR_Groups_GroupNames = "";
    HR_Groups_UserGroupsNo = "0";
    HR_Color_Interface = "21";
    HR_Color_Instance = "0";
    HR_Color_DiscreteFunction = "5";
    HR_Color_Function = "4";
    HR_Color_Utility = "36";
    HR_Color_Decision = "17";
    HR_Color_ContinuousChance = "48";
    HR_Color_DiscreteChance = "16";
    HR_Monitor_InitSD = "2";
    HR_Monitor_Utility_Arrange = "0";
    HR_Monitor_Mean_Variance = "1";
    HR_Monitor_Chance_Utility = "1";
    HR_Monitor_InitStates = "5";
    HR_Monitor_OpenGraph = "0";
    HR_Monitor_GraphPrecision = "100";
    HR_Monitor_AutoUpdGraph = "0";
    HR_Compile_MaxMinimalSeparators = "100000";
    HR_Compile_ApproxEpsilon = "1.0E-5";
    HR_Compile_Approximate = "0";
    HR_Compile_SaveToMemory = "0";
    HR_Compile_Compress = "0";
    HR_Compile_TriangMethod = "0";
    HR_Propagate_AutoNormal = "1";
    HR_Propagate_AutoSum = "1";
    HR_Propagate_Auto = "1";
    HR_Font_Italic = "0";
    HR_Font_Weight = "400";
    HR_Font_Size = "-12";
    HR_Font_Name = "com.apple.laf.AquaFonts$DerivedUIResourceFont[family=Lucida Grande,name=Lucida Grande,style=plain,size=13]";
    HR_Grid_GridShow = "0";
    HR_Grid_GridSnap = "0";
    HR_Grid_Y = "40";
    HR_Grid_X = "40";
}

node SICK
{
    label = "SICK";
    position = (41 344);
    states = ("sick" "not_sick");
    HR_LinkMode = "[SICKp:0][LOSES:0]";
}

node DRY
{
    label = "DRY";
    position = (159 345);
    states = ("dry" "not_dry");
    HR_LinkMode = "[DRYp:0][LOSES:0]";
}

node LOSES
{
    label = "LOSES";
    position = (104 205);
    states = ("yes" "no");
    HR_LinkMode = "[TREAT:0]";
}

decision TREAT
{
    label = "TREAT";
    position = (452 341);
    states = ("treat" "dont_treat");
    HR_LinkMode = "[SICKp:0][COST:0]";
}

node SICKp
{
    label = "SICKp";
    position = (266 206);
    states = ("sick" "not_sick");
    HR_LinkMode = "[LOSESp:0][HARV:0]";
}

node DRYp
{
    label = "DRYp";
    position = (401 197);
    states = ("dry" "not_dry");
    HR_LinkMode = "[LOSESp:0]";
}

node LOSESp
{
    label = "LOSESp";
    position = (351 84);
    states = ("yes" "no");
}

utility COST
{
    label = "COST";
    position = (453 471);
}

utility HARV
{
    label = "HARV";
    position = (185 58);
}

potential (SICK)
{
    data = ( 0.1 0.9 );
}

potential (DRY)
{
    data = ( 0.1 0.9 );
}

potential (LOSES | SICK DRY)
{
    data
     = ((( 0.527778 0.472222 )	%  SICK=sick  DRY=dry
	 ( 0.978261 0.0217391 ))	%  SICK=sick  DRY=not_dry
	(( 0.25 0.75 )	%  SICK=not_sick  DRY=dry
	 ( 0.0925926 0.907407 )));	%  SICK=not_sick  DRY=not_dry
}

potential (TREAT | LOSES)
{
    data
     = (( 0.5 0.5 )	%  LOSES=yes
	( 0.5 0.5 ));	%  LOSES=no
}

potential (SICKp | SICK TREAT)
{
    data
     = ((( 0.952381 0.047619 )	%  SICK=sick  TREAT=treat
	 ( 0.980198 0.019802 ))	%  SICK=sick  TREAT=dont_treat
	(( 0.446927 0.553073 )	%  SICK=not_sick  TREAT=treat
	 ( 0.010101 0.989899 )));	%  SICK=not_sick  TREAT=dont_treat
}

potential (DRYp | DRY)
{
    data
     = (( 0.923077 0.0769231 )	%  DRY=dry
	( 0.296296 0.703704 ));	%  DRY=not_dry
}

potential (LOSESp | SICKp DRYp)
{
    data
     = ((( 0.527778 0.472222 )	%  SICKp=sick  DRYp=dry
	 ( 0.818182 0.181818 ))	%  SICKp=sick  DRYp=not_dry
	(( 0.25 0.75 )	%  SICKp=not_sick  DRYp=dry
	 ( 0.0925926 0.907407 )));	%  SICKp=not_sick  DRYp=not_dry
}

potential (COST | TREAT)
{
    data
     = ( -8000	%  TREAT=treat
	 0 );	%  TREAT=dont_treat
}

potential (HARV | SICKp)
{
    data
     = ( 3000	%  SICKp=sick
	 20000 );	%  SICKp=not_sick
}
